digraph Tree {
node [shape=box, fontname="helvetica"] ;
edge [fontname="helvetica"] ;
0 [label="sex=male <= 0.5\nentropy = 0.919\nsamples = 984\nvalue = [655, 329]"] ;
1 [label="pclass=3rd <= 0.5\nentropy = 0.912\nsamples = 336\nvalue = [110.0, 226.0]"] ;
0 -> 1 [labeldistance=2.5, labelangle=45, headlabel="True"] ;
2 [label="age <= 38.5\nentropy = 0.346\nsamples = 185\nvalue = [12, 173]"] ;
1 -> 2 ;
3 [label="age <= 17.5\nentropy = 0.399\nsamples = 139\nvalue = [11, 128]"] ;
2 -> 3 ;
4 [label="entropy = 0.0\nsamples = 15\nvalue = [0, 15]"] ;
3 -> 4 ;
5 [label="age <= 37.5\nentropy = 0.432\nsamples = 124\nvalue = [11, 113]"] ;
3 -> 5 ;
6 [label="age <= 30.5\nentropy = 0.409\nsamples = 122\nvalue = [10, 112]"] ;
5 -> 6 ;
7 [label="age <= 29.5\nentropy = 0.544\nsamples = 48\nvalue = [6, 42]"] ;
6 -> 7 ;
8 [label="age <= 25.5\nentropy = 0.446\nsamples = 43\nvalue = [4, 39]"] ;
7 -> 8 ;
9 [label="age <= 24.5\nentropy = 0.555\nsamples = 31\nvalue = [4, 27]"] ;
8 -> 9 ;
10 [label="pclass=1st <= 0.5\nentropy = 0.48\nsamples = 29\nvalue = [3, 26]"] ;
9 -> 10 ;
11 [label="age <= 22.5\nentropy = 0.672\nsamples = 17\nvalue = [3, 14]"] ;
10 -> 11 ;
12 [label="age <= 21.5\nentropy = 0.75\nsamples = 14\nvalue = [3, 11]"] ;
11 -> 12 ;
13 [label="age <= 18.5\nentropy = 0.469\nsamples = 10\nvalue = [1, 9]"] ;
12 -> 13 ;
14 [label="entropy = 0.811\nsamples = 4\nvalue = [1, 3]"] ;
13 -> 14 ;
15 [label="entropy = 0.0\nsamples = 6\nvalue = [0, 6]"] ;
13 -> 15 ;
16 [label="entropy = 1.0\nsamples = 4\nvalue = [2, 2]"] ;
12 -> 16 ;
17 [label="entropy = 0.0\nsamples = 3\nvalue = [0, 3]"] ;
11 -> 17 ;
18 [label="entropy = 0.0\nsamples = 12\nvalue = [0, 12]"] ;
10 -> 18 ;
19 [label="pclass=2nd <= 0.5\nentropy = 1.0\nsamples = 2\nvalue = [1, 1]"] ;
9 -> 19 ;
20 [label="entropy = 0.0\nsamples = 1\nvalue = [1, 0]"] ;
19 -> 20 ;
21 [label="entropy = 0.0\nsamples = 1\nvalue = [0, 1]"] ;
19 -> 21 ;
22 [label="entropy = 0.0\nsamples = 12\nvalue = [0, 12]"] ;
8 -> 22 ;
23 [label="entropy = 0.971\nsamples = 5\nvalue = [2, 3]"] ;
7 -> 23 ;
24 [label="age <= 35.5\nentropy = 0.303\nsamples = 74\nvalue = [4, 70]"] ;
6 -> 24 ;
25 [label="age <= 31.597\nentropy = 0.27\nsamples = 65\nvalue = [3, 62]"] ;
24 -> 25 ;
26 [label="age <= 31.097\nentropy = 0.305\nsamples = 55\nvalue = [3, 52]"] ;
25 -> 26 ;
27 [label="entropy = 0.0\nsamples = 4\nvalue = [0, 4]"] ;
26 -> 27 ;
28 [label="pclass=1st <= 0.5\nentropy = 0.323\nsamples = 51\nvalue = [3, 48]"] ;
26 -> 28 ;
29 [label="entropy = 0.31\nsamples = 18\nvalue = [1, 17]"] ;
28 -> 29 ;
30 [label="entropy = 0.33\nsamples = 33\nvalue = [2, 31]"] ;
28 -> 30 ;
31 [label="entropy = 0.0\nsamples = 10\nvalue = [0, 10]"] ;
25 -> 31 ;
32 [label="pclass=1st <= 0.5\nentropy = 0.503\nsamples = 9\nvalue = [1, 8]"] ;
24 -> 32 ;
33 [label="entropy = 0.0\nsamples = 3\nvalue = [0, 3]"] ;
32 -> 33 ;
34 [label="age <= 36.5\nentropy = 0.65\nsamples = 6\nvalue = [1, 5]"] ;
32 -> 34 ;
35 [label="entropy = 0.722\nsamples = 5\nvalue = [1, 4]"] ;
34 -> 35 ;
36 [label="entropy = 0.0\nsamples = 1\nvalue = [0, 1]"] ;
34 -> 36 ;
37 [label="pclass=1st <= 0.5\nentropy = 1.0\nsamples = 2\nvalue = [1, 1]"] ;
5 -> 37 ;
38 [label="entropy = 0.0\nsamples = 1\nvalue = [1, 0]"] ;
37 -> 38 ;
39 [label="entropy = 0.0\nsamples = 1\nvalue = [0, 1]"] ;
37 -> 39 ;
40 [label="age <= 49.5\nentropy = 0.151\nsamples = 46\nvalue = [1, 45]"] ;
2 -> 40 ;
41 [label="entropy = 0.0\nsamples = 26\nvalue = [0, 26]"] ;
40 -> 41 ;
42 [label="age <= 50.5\nentropy = 0.286\nsamples = 20\nvalue = [1, 19]"] ;
40 -> 42 ;
43 [label="pclass=2nd <= 0.5\nentropy = 0.722\nsamples = 5\nvalue = [1, 4]"] ;
42 -> 43 ;
44 [label="entropy = 0.918\nsamples = 3\nvalue = [1, 2]"] ;
43 -> 44 ;
45 [label="entropy = 0.0\nsamples = 2\nvalue = [0, 2]"] ;
43 -> 45 ;
46 [label="entropy = 0.0\nsamples = 15\nvalue = [0, 15]"] ;
42 -> 46 ;
47 [label="age <= 38.5\nentropy = 0.935\nsamples = 151\nvalue = [98, 53]"] ;
1 -> 47 ;
48 [label="age <= 32.097\nentropy = 0.945\nsamples = 146\nvalue = [93, 53]"] ;
47 -> 48 ;
49 [label="age <= 19.5\nentropy = 0.93\nsamples = 139\nvalue = [91, 48]"] ;
48 -> 49 ;
50 [label="age <= 13.0\nentropy = 0.998\nsamples = 21\nvalue = [10, 11]"] ;
49 -> 50 ;
51 [label="age <= 5.5\nentropy = 0.811\nsamples = 8\nvalue = [6, 2]"] ;
50 -> 51 ;
52 [label="age <= 1.083\nentropy = 0.918\nsamples = 3\nvalue = [1, 2]"] ;
51 -> 52 ;
53 [label="entropy = 0.0\nsamples = 1\nvalue = [0, 1]"] ;
52 -> 53 ;
54 [label="age <= 3.5\nentropy = 1.0\nsamples = 2\nvalue = [1, 1]"] ;
52 -> 54 ;
55 [label="entropy = 0.0\nsamples = 1\nvalue = [1, 0]"] ;
54 -> 55 ;
56 [label="entropy = 0.0\nsamples = 1\nvalue = [0, 1]"] ;
54 -> 56 ;
57 [label="entropy = 0.0\nsamples = 5\nvalue = [5, 0]"] ;
51 -> 57 ;
58 [label="age <= 15.5\nentropy = 0.89\nsamples = 13\nvalue = [4, 9]"] ;
50 -> 58 ;
59 [label="entropy = 0.0\nsamples = 1\nvalue = [0, 1]"] ;
58 -> 59 ;
60 [label="age <= 18.5\nentropy = 0.918\nsamples = 12\nvalue = [4, 8]"] ;
58 -> 60 ;
61 [label="age <= 17.5\nentropy = 0.946\nsamples = 11\nvalue = [4, 7]"] ;
60 -> 61 ;
62 [label="age <= 16.5\nentropy = 0.918\nsamples = 6\nvalue = [2, 4]"] ;
61 -> 62 ;
63 [label="entropy = 0.918\nsamples = 3\nvalue = [1, 2]"] ;
62 -> 63 ;
64 [label="entropy = 0.918\nsamples = 3\nvalue = [1, 2]"] ;
62 -> 64 ;
65 [label="entropy = 0.971\nsamples = 5\nvalue = [2, 3]"] ;
61 -> 65 ;
66 [label="entropy = 0.0\nsamples = 1\nvalue = [0, 1]"] ;
60 -> 66 ;
67 [label="age <= 21.5\nentropy = 0.897\nsamples = 118\nvalue = [81, 37]"] ;
49 -> 67 ;
68 [label="entropy = 0.0\nsamples = 3\nvalue = [3, 0]"] ;
67 -> 68 ;
69 [label="age <= 23.5\nentropy = 0.906\nsamples = 115\nvalue = [78, 37]"] ;
67 -> 69 ;
70 [label="age <= 22.5\nentropy = 0.918\nsamples = 3\nvalue = [1, 2]"] ;
69 -> 70 ;
71 [label="entropy = 1.0\nsamples = 2\nvalue = [1, 1]"] ;
70 -> 71 ;
72 [label="entropy = 0.0\nsamples = 1\nvalue = [0, 1]"] ;
70 -> 72 ;
73 [label="age <= 29.0\nentropy = 0.896\nsamples = 112\nvalue = [77, 35]"] ;
69 -> 73 ;
74 [label="entropy = 0.0\nsamples = 2\nvalue = [2, 0]"] ;
73 -> 74 ;
75 [label="age <= 30.597\nentropy = 0.902\nsamples = 110\nvalue = [75, 35]"] ;
73 -> 75 ;
76 [label="entropy = 0.918\nsamples = 3\nvalue = [1, 2]"] ;
75 -> 76 ;
77 [label="entropy = 0.891\nsamples = 107\nvalue = [74, 33]"] ;
75 -> 77 ;
78 [label="age <= 36.5\nentropy = 0.863\nsamples = 7\nvalue = [2, 5]"] ;
48 -> 78 ;
79 [label="entropy = 0.0\nsamples = 4\nvalue = [0, 4]"] ;
78 -> 79 ;
80 [label="age <= 37.5\nentropy = 0.918\nsamples = 3\nvalue = [2, 1]"] ;
78 -> 80 ;
81 [label="entropy = 0.0\nsamples = 1\nvalue = [1, 0]"] ;
80 -> 81 ;
82 [label="entropy = 1.0\nsamples = 2\nvalue = [1, 1]"] ;
80 -> 82 ;
83 [label="entropy = 0.0\nsamples = 5\nvalue = [5, 0]"] ;
47 -> 83 ;
84 [label="age <= 12.5\nentropy = 0.632\nsamples = 648\nvalue = [545.0, 103.0]"] ;
0 -> 84 [labeldistance=2.5, labelangle=-45, headlabel="False"] ;
85 [label="pclass=3rd <= 0.5\nentropy = 0.702\nsamples = 21\nvalue = [4, 17]"] ;
84 -> 85 ;
86 [label="entropy = 0.0\nsamples = 13\nvalue = [0, 13]"] ;
85 -> 86 ;
87 [label="age <= 3.5\nentropy = 1.0\nsamples = 8\nvalue = [4, 4]"] ;
85 -> 87 ;
88 [label="entropy = 0.0\nsamples = 2\nvalue = [0, 2]"] ;
87 -> 88 ;
89 [label="age <= 7.5\nentropy = 0.918\nsamples = 6\nvalue = [4, 2]"] ;
87 -> 89 ;
90 [label="entropy = 0.0\nsamples = 2\nvalue = [2, 0]"] ;
89 -> 90 ;
91 [label="entropy = 1.0\nsamples = 4\nvalue = [2, 2]"] ;
89 -> 91 ;
92 [label="pclass=1st <= 0.5\nentropy = 0.577\nsamples = 627\nvalue = [541.0, 86.0]"] ;
84 -> 92 ;
93 [label="age <= 18.5\nentropy = 0.462\nsamples = 501\nvalue = [452, 49]"] ;
92 -> 93 ;
94 [label="entropy = 0.0\nsamples = 17\nvalue = [17, 0]"] ;
93 -> 94 ;
95 [label="age <= 45.5\nentropy = 0.473\nsamples = 484\nvalue = [435, 49]"] ;
93 -> 95 ;
96 [label="age <= 22.5\nentropy = 0.484\nsamples = 468\nvalue = [419, 49]"] ;
95 -> 96 ;
97 [label="pclass=3rd <= 0.5\nentropy = 0.672\nsamples = 34\nvalue = [28, 6]"] ;
96 -> 97 ;
98 [label="age <= 19.5\nentropy = 0.811\nsamples = 12\nvalue = [9, 3]"] ;
97 -> 98 ;
99 [label="entropy = 1.0\nsamples = 2\nvalue = [1, 1]"] ;
98 -> 99 ;
100 [label="age <= 21.5\nentropy = 0.722\nsamples = 10\nvalue = [8, 2]"] ;
98 -> 100 ;
101 [label="age <= 20.5\nentropy = 0.592\nsamples = 7\nvalue = [6, 1]"] ;
100 -> 101 ;
102 [label="entropy = 0.811\nsamples = 4\nvalue = [3, 1]"] ;
101 -> 102 ;
103 [label="entropy = 0.0\nsamples = 3\nvalue = [3, 0]"] ;
101 -> 103 ;
104 [label="entropy = 0.918\nsamples = 3\nvalue = [2, 1]"] ;
100 -> 104 ;
105 [label="age <= 21.5\nentropy = 0.575\nsamples = 22\nvalue = [19, 3]"] ;
97 -> 105 ;
106 [label="age <= 20.5\nentropy = 0.629\nsamples = 19\nvalue = [16, 3]"] ;
105 -> 106 ;
107 [label="age <= 19.5\nentropy = 0.592\nsamples = 14\nvalue = [12, 2]"] ;
106 -> 107 ;
108 [label="entropy = 0.592\nsamples = 7\nvalue = [6, 1]"] ;
107 -> 108 ;
109 [label="entropy = 0.592\nsamples = 7\nvalue = [6, 1]"] ;
107 -> 109 ;
110 [label="entropy = 0.722\nsamples = 5\nvalue = [4, 1]"] ;
106 -> 110 ;
111 [label="entropy = 0.0\nsamples = 3\nvalue = [3, 0]"] ;
105 -> 111 ;
112 [label="age <= 23.5\nentropy = 0.466\nsamples = 434\nvalue = [391, 43]"] ;
96 -> 112 ;
113 [label="entropy = 0.0\nsamples = 9\nvalue = [9, 0]"] ;
112 -> 113 ;
114 [label="age <= 24.5\nentropy = 0.473\nsamples = 425\nvalue = [382, 43]"] ;
112 -> 114 ;
115 [label="pclass=3rd <= 0.5\nentropy = 0.863\nsamples = 7\nvalue = [5, 2]"] ;
114 -> 115 ;
116 [label="entropy = 0.918\nsamples = 3\nvalue = [2, 1]"] ;
115 -> 116 ;
117 [label="entropy = 0.811\nsamples = 4\nvalue = [3, 1]"] ;
115 -> 117 ;
118 [label="age <= 29.5\nentropy = 0.463\nsamples = 418\nvalue = [377, 41]"] ;
114 -> 118 ;
119 [label="pclass=2nd <= 0.5\nentropy = 0.179\nsamples = 37\nvalue = [36, 1]"] ;
118 -> 119 ;
120 [label="entropy = 0.0\nsamples = 18\nvalue = [18, 0]"] ;
119 -> 120 ;
121 [label="age <= 26.5\nentropy = 0.297\nsamples = 19\nvalue = [18, 1]"] ;
119 -> 121 ;
122 [label="age <= 25.5\nentropy = 0.503\nsamples = 9\nvalue = [8, 1]"] ;
121 -> 122 ;
123 [label="entropy = 0.0\nsamples = 5\nvalue = [5, 0]"] ;
122 -> 123 ;
124 [label="entropy = 0.811\nsamples = 4\nvalue = [3, 1]"] ;
122 -> 124 ;
125 [label="entropy = 0.0\nsamples = 10\nvalue = [10, 0]"] ;
121 -> 125 ;
126 [label="age <= 44.5\nentropy = 0.485\nsamples = 381\nvalue = [341, 40]"] ;
118 -> 126 ;
127 [label="age <= 32.5\nentropy = 0.479\nsamples = 378\nvalue = [339, 39]"] ;
126 -> 127 ;
128 [label="age <= 31.597\nentropy = 0.498\nsamples = 338\nvalue = [301, 37]"] ;
127 -> 128 ;
129 [label="pclass=3rd <= 0.5\nentropy = 0.479\nsamples = 330\nvalue = [296, 34]"] ;
128 -> 129 ;
130 [label="age <= 30.5\nentropy = 0.262\nsamples = 45\nvalue = [43, 2]"] ;
129 -> 130 ;
131 [label="entropy = 0.469\nsamples = 10\nvalue = [9, 1]"] ;
130 -> 131 ;
132 [label="age <= 31.097\nentropy = 0.187\nsamples = 35\nvalue = [34, 1]"] ;
130 -> 132 ;
133 [label="entropy = 0.0\nsamples = 1\nvalue = [1, 0]"] ;
132 -> 133 ;
134 [label="entropy = 0.191\nsamples = 34\nvalue = [33, 1]"] ;
132 -> 134 ;
135 [label="age <= 30.5\nentropy = 0.507\nsamples = 285\nvalue = [253, 32]"] ;
129 -> 135 ;
136 [label="entropy = 1.0\nsamples = 2\nvalue = [1, 1]"] ;
135 -> 136 ;
137 [label="age <= 31.097\nentropy = 0.499\nsamples = 283\nvalue = [252, 31]"] ;
135 -> 137 ;
138 [label="entropy = 0.0\nsamples = 2\nvalue = [2, 0]"] ;
137 -> 138 ;
139 [label="entropy = 0.501\nsamples = 281\nvalue = [250, 31]"] ;
137 -> 139 ;
140 [label="pclass=2nd <= 0.5\nentropy = 0.954\nsamples = 8\nvalue = [5, 3]"] ;
128 -> 140 ;
141 [label="entropy = 0.811\nsamples = 4\nvalue = [3, 1]"] ;
140 -> 141 ;
142 [label="entropy = 1.0\nsamples = 4\nvalue = [2, 2]"] ;
140 -> 142 ;
143 [label="age <= 35.5\nentropy = 0.286\nsamples = 40\nvalue = [38, 2]"] ;
127 -> 143 ;
144 [label="entropy = 0.0\nsamples = 15\nvalue = [15, 0]"] ;
143 -> 144 ;
145 [label="age <= 37.0\nentropy = 0.402\nsamples = 25\nvalue = [23, 2]"] ;
143 -> 145 ;
146 [label="pclass=3rd <= 0.5\nentropy = 0.811\nsamples = 4\nvalue = [3, 1]"] ;
145 -> 146 ;
147 [label="entropy = 0.0\nsamples = 2\nvalue = [2, 0]"] ;
146 -> 147 ;
148 [label="entropy = 1.0\nsamples = 2\nvalue = [1, 1]"] ;
146 -> 148 ;
149 [label="pclass=3rd <= 0.5\nentropy = 0.276\nsamples = 21\nvalue = [20, 1]"] ;
145 -> 149 ;
150 [label="age <= 41.5\nentropy = 0.503\nsamples = 9\nvalue = [8, 1]"] ;
149 -> 150 ;
151 [label="age <= 40.5\nentropy = 0.722\nsamples = 5\nvalue = [4, 1]"] ;
150 -> 151 ;
152 [label="entropy = 0.0\nsamples = 3\nvalue = [3, 0]"] ;
151 -> 152 ;
153 [label="entropy = 1.0\nsamples = 2\nvalue = [1, 1]"] ;
151 -> 153 ;
154 [label="entropy = 0.0\nsamples = 4\nvalue = [4, 0]"] ;
150 -> 154 ;
155 [label="entropy = 0.0\nsamples = 12\nvalue = [12, 0]"] ;
149 -> 155 ;
156 [label="pclass=2nd <= 0.5\nentropy = 0.918\nsamples = 3\nvalue = [2, 1]"] ;
126 -> 156 ;
157 [label="entropy = 1.0\nsamples = 2\nvalue = [1, 1]"] ;
156 -> 157 ;
158 [label="entropy = 0.0\nsamples = 1\nvalue = [1, 0]"] ;
156 -> 158 ;
159 [label="entropy = 0.0\nsamples = 16\nvalue = [16, 0]"] ;
95 -> 159 ;
160 [label="age <= 60.5\nentropy = 0.873\nsamples = 126\nvalue = [89, 37]"] ;
92 -> 160 ;
161 [label="age <= 28.5\nentropy = 0.9\nsamples = 117\nvalue = [80, 37]"] ;
160 -> 161 ;
162 [label="age <= 18.0\nentropy = 1.0\nsamples = 14\nvalue = [7, 7]"] ;
161 -> 162 ;
163 [label="entropy = 0.0\nsamples = 1\nvalue = [0, 1]"] ;
162 -> 163 ;
164 [label="age <= 25.5\nentropy = 0.996\nsamples = 13\nvalue = [7, 6]"] ;
162 -> 164 ;
165 [label="age <= 20.0\nentropy = 0.863\nsamples = 7\nvalue = [5, 2]"] ;
164 -> 165 ;
166 [label="entropy = 0.0\nsamples = 1\nvalue = [1, 0]"] ;
165 -> 166 ;
167 [label="age <= 24.5\nentropy = 0.918\nsamples = 6\nvalue = [4, 2]"] ;
165 -> 167 ;
168 [label="age <= 22.5\nentropy = 0.971\nsamples = 5\nvalue = [3, 2]"] ;
167 -> 168 ;
169 [label="entropy = 1.0\nsamples = 2\nvalue = [1, 1]"] ;
168 -> 169 ;
170 [label="entropy = 0.918\nsamples = 3\nvalue = [2, 1]"] ;
168 -> 170 ;
171 [label="entropy = 0.0\nsamples = 1\nvalue = [1, 0]"] ;
167 -> 171 ;
172 [label="age <= 26.5\nentropy = 0.918\nsamples = 6\nvalue = [2, 4]"] ;
164 -> 172 ;
173 [label="entropy = 0.0\nsamples = 1\nvalue = [0, 1]"] ;
172 -> 173 ;
174 [label="age <= 27.5\nentropy = 0.971\nsamples = 5\nvalue = [2, 3]"] ;
172 -> 174 ;
175 [label="entropy = 1.0\nsamples = 2\nvalue = [1, 1]"] ;
174 -> 175 ;
176 [label="entropy = 0.918\nsamples = 3\nvalue = [1, 2]"] ;
174 -> 176 ;
177 [label="age <= 30.5\nentropy = 0.87\nsamples = 103\nvalue = [73.0, 30.0]"] ;
161 -> 177 ;
178 [label="entropy = 0.0\nsamples = 5\nvalue = [5, 0]"] ;
177 -> 178 ;
179 [label="age <= 59.0\nentropy = 0.889\nsamples = 98\nvalue = [68, 30]"] ;
177 -> 179 ;
180 [label="age <= 56.5\nentropy = 0.88\nsamples = 97\nvalue = [68, 29]"] ;
179 -> 180 ;
181 [label="age <= 47.5\nentropy = 0.891\nsamples = 94\nvalue = [65, 29]"] ;
180 -> 181 ;
182 [label="age <= 45.5\nentropy = 0.861\nsamples = 74\nvalue = [53, 21]"] ;
181 -> 182 ;
183 [label="age <= 31.597\nentropy = 0.897\nsamples = 67\nvalue = [46, 21]"] ;
182 -> 183 ;
184 [label="age <= 31.097\nentropy = 0.821\nsamples = 39\nvalue = [29, 10]"] ;
183 -> 184 ;
185 [label="entropy = 1.0\nsamples = 2\nvalue = [1, 1]"] ;
184 -> 185 ;
186 [label="entropy = 0.8\nsamples = 37\nvalue = [28, 9]"] ;
184 -> 186 ;
187 [label="age <= 32.5\nentropy = 0.967\nsamples = 28\nvalue = [17, 11]"] ;
183 -> 187 ;
188 [label="entropy = 0.0\nsamples = 1\nvalue = [0, 1]"] ;
187 -> 188 ;
189 [label="age <= 33.5\nentropy = 0.951\nsamples = 27\nvalue = [17, 10]"] ;
187 -> 189 ;
190 [label="entropy = 0.0\nsamples = 2\nvalue = [2, 0]"] ;
189 -> 190 ;
191 [label="age <= 35.5\nentropy = 0.971\nsamples = 25\nvalue = [15, 10]"] ;
189 -> 191 ;
192 [label="entropy = 0.0\nsamples = 2\nvalue = [0, 2]"] ;
191 -> 192 ;
193 [label="age <= 38.5\nentropy = 0.932\nsamples = 23\nvalue = [15, 8]"] ;
191 -> 193 ;
194 [label="age <= 36.5\nentropy = 0.994\nsamples = 11\nvalue = [6, 5]"] ;
193 -> 194 ;
195 [label="entropy = 1.0\nsamples = 6\nvalue = [3, 3]"] ;
194 -> 195 ;
196 [label="age <= 37.5\nentropy = 0.971\nsamples = 5\nvalue = [3, 2]"] ;
194 -> 196 ;
197 [label="entropy = 0.918\nsamples = 3\nvalue = [2, 1]"] ;
196 -> 197 ;
198 [label="entropy = 1.0\nsamples = 2\nvalue = [1, 1]"] ;
196 -> 198 ;
199 [label="age <= 39.5\nentropy = 0.811\nsamples = 12\nvalue = [9, 3]"] ;
193 -> 199 ;
200 [label="entropy = 0.918\nsamples = 3\nvalue = [2, 1]"] ;
199 -> 200 ;
201 [label="age <= 41.5\nentropy = 0.764\nsamples = 9\nvalue = [7, 2]"] ;
199 -> 201 ;
202 [label="entropy = 0.0\nsamples = 2\nvalue = [2, 0]"] ;
201 -> 202 ;
203 [label="age <= 43.5\nentropy = 0.863\nsamples = 7\nvalue = [5, 2]"] ;
201 -> 203 ;
204 [label="entropy = 0.918\nsamples = 3\nvalue = [2, 1]"] ;
203 -> 204 ;
205 [label="entropy = 0.811\nsamples = 4\nvalue = [3, 1]"] ;
203 -> 205 ;
206 [label="entropy = 0.0\nsamples = 7\nvalue = [7, 0]"] ;
182 -> 206 ;
207 [label="age <= 49.5\nentropy = 0.971\nsamples = 20\nvalue = [12, 8]"] ;
181 -> 207 ;
208 [label="age <= 48.5\nentropy = 0.863\nsamples = 7\nvalue = [2, 5]"] ;
207 -> 208 ;
209 [label="entropy = 0.918\nsamples = 3\nvalue = [1, 2]"] ;
208 -> 209 ;
210 [label="entropy = 0.811\nsamples = 4\nvalue = [1, 3]"] ;
208 -> 210 ;
211 [label="age <= 51.5\nentropy = 0.779\nsamples = 13\nvalue = [10, 3]"] ;
207 -> 211 ;
212 [label="entropy = 0.0\nsamples = 3\nvalue = [3, 0]"] ;
211 -> 212 ;
213 [label="age <= 54.5\nentropy = 0.881\nsamples = 10\nvalue = [7, 3]"] ;
211 -> 213 ;
214 [label="age <= 53.0\nentropy = 0.971\nsamples = 5\nvalue = [3, 2]"] ;
213 -> 214 ;
215 [label="entropy = 1.0\nsamples = 2\nvalue = [1, 1]"] ;
214 -> 215 ;
216 [label="entropy = 0.918\nsamples = 3\nvalue = [2, 1]"] ;
214 -> 216 ;
217 [label="age <= 55.5\nentropy = 0.722\nsamples = 5\nvalue = [4, 1]"] ;
213 -> 217 ;
218 [label="entropy = 0.0\nsamples = 2\nvalue = [2, 0]"] ;
217 -> 218 ;
219 [label="entropy = 0.918\nsamples = 3\nvalue = [2, 1]"] ;
217 -> 219 ;
220 [label="entropy = 0.0\nsamples = 3\nvalue = [3, 0]"] ;
180 -> 220 ;
221 [label="entropy = 0.0\nsamples = 1\nvalue = [0, 1]"] ;
179 -> 221 ;
222 [label="entropy = 0.0\nsamples = 9\nvalue = [9, 0]"] ;
160 -> 222 ;
}